3
-4
6
1
-1
1
-3
1
-1
-3
-23
32
-10
-23
15
-1
-16
15
2
-1
2
-3
2
3
-3
0
3
-3
6
-2
-2
-1
-2
-31
44
-13
-31
17
2
-23
17
3
1
3
-2
3
-2
0
3
-3
5
-2
-2
3
-2
-41
58
-14
-41
21
5
-25
21
1
1
-1
1
-1
2
3
-1
0
3
-2
5
-1
-4
2
-1
-4
-41
58
-13
-41
19
2
-21
19
-2
-1
-3
-2
-2
3
5
-2
0
3
-2
3
1
1
1
1
-28
35
-11
-28
7
-2
-6
7
-2
-3
-2
-3
3
3
-3
0
3
-2
5
1
-1
1
1
1
-17
26
-9
-17
3
-8
-1
3
-1
1
-2
-1
-4
6
3
-4
0
3
-1
-3
3
-1
1
-2
1
-5
8
-6
-5
-7
-3
12
-7
-1
3
-1
2
3
0
3
-2
-4
6
-2
1
1
1
-4
-1
-3
-4
-21
26
-9
-21
17
2
-21
17
3
-1
3
-6
1
-6
0
3
-3
6
1
1
1
-4
-2
-4
-4
-28
40
-8
-28
21
14
-34
21
5
2
1
5
-3
1
-3
0
3
-1
-3
3
-1
1
1
1
-7
-3
-6
-7
-37
48
-10
-37
23
15
-41
23
3
2
3
-3
1
1
-3
0
3
-1
-3
5
-1
1
1
1
-8
-2
-5
-8
-37
48
-8
-37
21
12
-34
21
-2
-3
2
2
-3
0
3
-2
-3
5
-2
1
1
-5
-1
-3
-5
-23
29
-9
-23
9
3
-10
9
-2
-3
-2
-3
2
2
-3
0
3
-2
5
1
-1
1
-3
-1
-3
-11
19
-8
-11
5
-3
-2
5
-2
1
-2
-2
-5
-5
0
3
-1
-2
5
-1
-3
-1
3
5
-2
3
-6
-3
9
-6
3
-2
-3
-1
-2
0
3
-2
-3
6
-2
5
3
2
5
-5
-1
-4
-5
-10
15
-4
-10
23
2
-28
23
5
5
-4
7
5
-4
0
3
-1
-4
6
-1
3
3
1
3
3
1
1
3
-11
17
-2
-11
26
17
-44
26
6
1
1
6
-2
6
5
-2
0
3
-2
-3
5
-2
2
3
1
2
21
12
17
21
-16
19
-3
-16
29
26
-53
29
5
2
1
5
-2
6
5
-2
0
3
-2
-3
5
-2
2
2
1
2
5
2
3
5
-14
15
-7
-14
23
19
-44
23
1
2
-1
1
6
5
0
3
-2
-3
5
-2
2
1
1
2
-6
-2
-4
-6
-5
11
-6
-5
11
7
-17
11
1
-2
1
6
6
1
0
3
-2
-2
6
-2
2
2
-3
1
-1
-3
-2
7
-4
-2
3
-2
-5
3
-2
1
-2
-2
-1
1
1
-1
0
3
-2
-3
6
-2
1
1
-2
-2
-3
-3
7
-3
3
1
-1
1
1
0
3
-2
-4
6
-2
5
2
2
5
-6
-2
-5
-6
9
-9
2
9
23
1
-28
23
5
5
-6
3
1
-6
0
3
-2
-4
6
-2
3
2
1
3
6
3
3
6
14
-17
1
14
26
14
-41
26
6
2
2
6
-3
3
2
-3
0
3
-2
-4
5
-2
2
1
2
29
19
23
29
17
-21
17
26
21
-48
26
5
2
1
5
6
7
8
6
0
3
-2
-3
6
-2
2
2
9
6
8
9
21
-19
21
23
19
-41
23
-2
8
3
6
8
0
3
-2
-3
6
-2
1
1
-4
-2
-4
-4
17
-17
17
8
7
-17
8
-2
-3
-2
5
-1
5
0
3
-2
-2
6
-2
1
1
-1
3
-1
12
-13
12
5
-3
5
-1
1
-2
-1
2
-1
-2
2
0
3
-2
-3
7
-2
1
1
1
-1
1
5
-7
2
5
-4
-3
8
-4
3
6
2
3
6
0
3
-2
-4
5
-2
3
1
3
-5
-3
-5
8
-14
3
8
11
-2
-11
11
5
1
5
-5
5
2
-5
0
3
-1
-3
6
-1
3
1
3
-2
-2
-2
15
-23
2
15
12
7
-21
12
5
1
5
5
5
0
3
-2
-3
6
-2
1
-1
-1
1
1
2
-1
1
23
-28
6
23
14
9
-25
14
3
1
3
3
-2
-1
3
0
3
-2
-3
6
-2
-2
-2
-3
-3
-3
23
-28
3
23
9
8
-23
9
-2
-2
-16
-14
-2
0
3
-2
-3
6
-2
-2
-2
-5
-2
-5
-5
17
-21
3
17
3
-5
-2
-2
-4
-2
-6
-21
-21
-6
0
3
-2
-3
7
-2
-2
-2
-2
1
-1
-2
8
-9
3
8
-1
-2
1
-1
-1
-3
-1
-4
-11
-14
-4
0
3
-2
-4
7
-2
-1
-2
-2
-1
-5
1
3
-5
-7
-4
9
-7
2
6
6
5
6
0
3
-1
-4
5
-1
2
2
-6
1
-2
-6
17
-23
9
17
7
-5
-2
7
5
5
-8
3
-2
-8
0
3
-1
-3
6
-1
1
-1
1
-3
2
-1
-3
26
-28
9
26
8
-2
-7
8
3
3
-1
3
-1
0
3
-2
-3
6
-2
-2
-2
-6
-3
-6
26
-34
7
26
11
-1
-10
11
3
1
3
-8
-9
0
3
-2
-3
6
-2
-2
-2
-5
1
-2
-5
23
-31
7
23
7
-8
7
2
-2
2
-7
-19
-21
-7
0
3
-2
-3
7
-2
-2
-2
-3
2
-2
-3
15
-23
8
15
-1
1
-1
-3
-10
-21
-25
-10
0
3
-1
-3
7
-1
-2
-2
-2
2
-2
9
-16
8
9
3
-5
3
-2
-6
-10
-14
-6
0
3
-1
-4
7
-1
-1
-1
-2
-1
-1
-2
-2
-4
7
-2
-3
-6
9
-3
1
2
1
-2
1
-1
-2
0
3
-2
-4
5
-2
1
1
-1
-1
19
-34
11
19
-4
-6
11
-4
3
3
-2
2
1
-2
0
3
-3
6
19
-31
11
19
-4
-4
7
-4
3
3
2
2
2
2
0
3
-1
-4
6
-1
-2
-2
19
-31
9
19
-2
-3
7
-2
2
2
6
2
2
6
0
3
-1
-4
7
-1
1
1
1
1
-1
-1
19
-31
11
19
-2
-4
7
-2
2
1
2
7
2
1
7
0
3
-2
-5
7
-2
1
1
1
1
11
-23
11
11
-7
-2
9
-7
2
2
2
7
6
2
7
0
3
-1
-5
7
-1
1
8
-19
11
8
-3
-4
8
-3
2
2
2
3
6
1
3
0
3
-2
-6
7
-2
2
-1
1
2
3
-11
9
3
-10
-2
14
-10
3
3
2
3
1
3
1
1
0
-2
3
-7
-2
5
-1
2
5
6
12
-3
-2
2
-3
3
6
2
3
-2
-3
2
-2
7
6
15
7
5
3
0
-2
5
-5
-2
-4
-3
-6
-4
11
19
23
11
-5
3
-5
-2
-7
-8
-2
-4
-5
-4
14
12
19
14
-14
-14
-21
-14
0
-4
5
-4
-4
9
9
9
9
-1
9
21
19
9
-9
-14
-23
-9
-5
-10
-5
5
-2
-4
5
-13
-16
-28
-13
0
-4
5
-5
-4
6
-8
-17
-23
-8
9
17
11
9
-4
-5
-17
-4
-3
-9
2
-3
-1
-8
-11
-1
7
2
7
0
-2
5
-5
-2
-17
-17
-17
-17
-10
-11
-19
-10
-3
-2
-7
-3
7
5
7
-3
-2
-7
-7
-2
15
17
29
15
0
5
-5
15
14
12
15
3
2
3
-3
-3
-5
-3
5
7
2
5
5
2
5
-2
-2
-5
-2
5
12
5
0
2
-2
-5
2
-2
-4
-3
-2
-2
-2
2
-2
1
1
1
-2
1
3
-4
-5
3
-2
-2
-2
-1
-5
1
-1
0
-3
5
-5
-3
1
2
2
11
21
2
3
9
6
3
5
9
11
5
8
15
14
21
15
6
14
17
6
0
-3
2
-2
-3
3
6
6
3
11
21
29
11
15
17
9
15
14
21
35
14
-7
-6
1
-7
5
-3
-7
5
2
9
3
2
0
5
8
11
5
-37
-37
-44
-37
-1
-2
-3
-1
-16
-25
-41
-16
9
15
29
9
-10
-9
2
-10
-19
-34
-48
-19
-23
-28
-48
-23
0
3
9
9
3
35
35
35
35
-16
-25
-41
-16
-37
-48
-60
-37
-16
-16
-13
-16
-3
-3
8
-3
-14
-17
-31
-14
-21
-28
-44
-21
0
-5
2
-2
-5
2
8
15
2
-7
-9
-19
-7
-5
-10
-11
-5
-21
-28
-31
-21
2
6
-4
-3
-4
-4
19
21
26
19
0
-3
5
-5
-3
-23
-21
-23
-23
9
9
11
9
6
6
8
6
-7
-11
-17
-7
3
6
-2
5
1
-2
11
8
23
11
0
-1
-4
8
8
8
8
2
2
8
2
-1
-1
-1
-1
-3
-2
-2
-3
-2
7
3
-2
1
-3
7
1
0
-4
7
-3
-4
-10
-13
-13
-10
3
14
26
3
-3
-5
-16
-3
-6
-11
-17
-6
-2
1
14
-2
2
-2
-11
2
1
5
17
1
0
1
8
7
1
32
32
40
32
14
23
32
14
-31
-34
-53
-31
-2
-2
-2
-9
-1
7
-9
-23
-37
-60
-23
14
26
32
14
0
19
21
29
19
7
14
14
7
-5
-10
-14
-5
-14
-19
-19
-14
26
35
52
26
-10
-2
7
-10
-34
-44
-63
-34
-8
-3
-19
-8
0
17
21
29
17
-60
-71
-83
-60
-23
-37
-57
-23
40
44
65
40
44
61
87
44
-3
3
14
-3
-1
6
7
-1
-37
-48
-83
-37
0
-1
11
7
-1
48
44
44
48
-3
-7
-17
-3
26
29
44
26
21
32
48
21
-2
7
12
-2
5
14
23
5
-3
-4
-16
-3
0
-5
9
-2
-5
-8
-4
-1
-8
14
11
17
14
8
-2
3
9
-2
3
12
15
3
9
11
11
8
17
11
0
-1
1
-2
-1
2
1
9
2
2
1
3
2
-1
-2
-1
-1
-1
1
2
-1
6
6
2
-4
7
2
0
-5
6
-5
-5
9
7
5
9
5
15
26
5
-4
-10
-6
-4
-2
-5
-14
-2
5
11
21
5
-8
-16
-28
-8
1
-2
12
1
0
-3
6
1
-3
-44
-53
-53
-44
15
23
32
15
23
23
40
23
-21
-28
-48
-21
11
19
-19
-25
-37
-19
12
26
40
12
0
1
11
12
1
52
61
73
52
-13
-16
-28
-13
52
52
87
52
-41
-57
-83
-41
-2
9
19
-2
12
21
21
12
15
29
29
15
0
14
12
2
2
-23
-37
-57
-23
6
-2
17
6
-17
-31
-41
-17
11
23
32
48
73
32
-19
-21
-48
-19
0
-6
11
2
-6
-31
-37
-44
-31
-5
-13
-21
-31
-28
-21
8
8
15
8
3
11
21
3
8
19
35
8
-16
-14
-34
-16
0
-7
9
-4
-7
15
12
14
15
15
15
23
15
-3
-7
-8
-3
8
14
21
8
7
12
21
7
3
8
14
3
3
2
2
3
0
3
-2
-3
-3
-2
-3
1
1
8
1
-3
-2
-2
-3
5
7
8
5
1
3
6
1
3
1
5
3
2
1
6
2
0
-1
3
-4
-1
11
14
17
11
2
12
21
2
17
15
23
17
6
9
14
6
7
8
15
7
-5
-6
-11
-5
-3
-13
-3
-3
0
-3
3
-3
-3
5
2
-2
5
11
17
23
11
8
5
12
8
17
26
26
17
6
11
7
6
5
15
0
-5
6
-1
-5
-41
-44
-48
-41
-16
-21
-31
-16
-31
-41
-44
-31
9
12
1
9
2
9
17
2
17
32
44
17
12
23
29
12
0
-5
7
-1
-5
32
35
44
32
-13
-25
-37
-13
-31
-37
-53
-31
-16
-21
-41
-16
5
11
21
5
6
19
35
6
-5
-3
-14
-5
0
-6
7
-4
-6
-2
2
-2
2
-1
-2
2
2
7
-4
2
-17
-28
-37
-17
3
9
14
3
-8
-7
-2
-8
-13
-10
-25
-13
0
-3
7
-5
-3
-2
11
12
21
11
1
7
1
-5
-9
-11
-5
7
9
12
7
-3
-5
-7
-3
-4
0
1
-2
-3
1
-2
-2
-1
-2
-2
1
7
-2
-2
1
-3
-2
1
1
1
-2
-8
-10
-2
0
2
3
-1
2
-14
-16
-13
-14
8
14
-6
-6
-6
-6
-5
-9
-2
-5
5
3
6
5
-1
1
-1
1
-7
-1
1
0
5
-2
19
21
21
19
6
9
11
6
-16
-19
-23
-16
-2
-1
7
-2
2
2
7
2
2
8
9
2
1
7
1
0
-3
7
-2
-3
7
-1
7
-11
-17
-23
-11
2
7
-3
2
7
14
19
7
3
6
11
3
1
9
15
1
9
14
26
9
0
-3
7
-3
-3
-14
-17
-14
-14
-10
-16
17
29
21
17
9
19
21
9
3
7
14
3
-5
-2
1
-5
1
3
2
1
0
-2
6
-3
-2
1
1
5
1
3
5
1
9
8
1
1
3
5
1
5
7
-5
-8
-10
-5
-11
-10
-17
-11
0
7
-3
1
3
1
6
6
11
6
-3
-1
-1
-3
-2
-2
-4
-2
6
6
8
6
2
-3
-6
2
-1
-2
-4
-1
0
1
-2
1
1
1
1
1
-2
1
3
-2
-2
2
-2
-1
-2
-3
-1
-1
-3
-2
-1
2
-2
-4
2
1
-2
0
1
-4
-3
1
7
6
6
7
6
9
-1
2
-1
1
1
-1
1
3
-4
-7
3
-3
-2
-3
-4
-3
0
1
-1
-2
1
-10
-8
-10
-10
1
2
7
5
2
-3
-1
-1
-8
-9
-1
-1
2
3
-1
-4
-1
0
-2
-3
-2
1
3
3
1
-6
-13
-13
-6
3
7
6
3
-2
-5
-2
-2
-1
-7
-5
-1
1
1
3
1
6
8
15
6
0
-2
-3
-2
3
5
3
3
5
-6
-4
5
-7
-8
-6
-7
-2
1
2
-2
-2
-4
-3
-2
1
-3
-2
1
2
6
11
2
0
-1
-4
-1
1
1
1
-2
-6
-2
1
1
5
1
-3
-4
-8
-3
1
-5
-8
1
-7
-4
-4
-7
0
1
-3
-2
1
1
3
1
3
-1
2
3
1
3
2
1
2
-3
-5
2
3
-1
-3
3
-2
-3
-3
-2
0
2
-2
-2
2
-2
-3
-2
-1
-3
1
-1
1
-2
-2
-7
-13
-2
-1
-2
-3
-1
-2
-1
-2
-2
0
14
12
-21
14
-8
-19
-23
-8
3
-3
3
9
14
23
9
-2
-6
-7
-2
5
-2
-4
-1
-2
-2
-1
0
11
12
-25
11
-13
-16
-21
-13
9
-10
9
7
11
19
7
6
11
12
6
11
14
19
11
2
3
6
2
-1
-2
-1
-1
0
14
11
-28
14
-9
-9
-13
-9
-2
-1
2
-2
2
9
12
2
11
12
19
11
14
19
26
14
7
9
12
7
-1
-2
-1
-1
0
11
12
-25
11
3
5
-16
15
-16
-3
-2
-4
-3
-6
-9
-14
-6
14
21
29
14
8
7
11
8
-2
-2
-2
-2
0
6
8
-11
6
5
8
12
5
-16
21
-4
-16
-8
-11
-17
-8
-2
-4
-6
-2
7
17
23
7
1
5
1
-2
-2
-2
-2
0
3
6
-7
3
11
17
21
11
-11
17
-6
-11
-9
-17
-23
-9
1
3
1
6
12
17
6
-2
-2
-2
-2
-2
0
-2
-2
1
-2
9
11
17
9
23
-16
-5
23
5
-7
-8
5
-1
-1
-1
2
5
9
2
-1
-1
-1
-1
0
14
12
-25
14
-13
-21
-28
-13
-3
3
-3
12
19
29
12
-9
-14
-21
-9
-13
-21
-25
-13
-2
1
-2
-1
0
9
19
-31
9
-11
-16
-25
-11
17
-23
5
17
7
14
21
7
6
12
-17
-31
-44
-17
15
12
19
15
-1
-2
-1
-1
0
11
17
-34
11
-8
-9
-14
-8
26
-28
2
26
5
11
14
5
23
29
40
23
-19
-37
-53
-19
21
21
26
21
-1
-2
-1
-1
0
11
15
-28
11
1
6
6
1
8
-7
-1
8
-3
-2
-6
-3
-21
-28
-37
-21
-11
-31
-44
-11
12
11
17
12
-2
-2
-2
-2
0
7
7
-11
7
6
9
15
6
-23
23
-23
-9
-13
-21
-9
2
1
-4
2
-8
-19
-34
-8
-3
-2
2
-3
-2
-2
-2
-2
0
7
3
-6
7
11
17
26
11
-44
48
-2
-44
-13
-19
-28
-13
3
-7
-13
-21
-7
-3
-5
-1
-3
-2
-2
-2
-2
0
-1
2
8
11
19
8
-13
15
-2
-13
-11
-14
1
1
1
1
-3
-8
-11
-3
-2
-2
-2
-2
-2
-2
-2
-2
0
17
14
-23
17
-10
-23
-31
-10
-25
23
2
-25
14
21
32
14
-11
-21
-31
-11
1
5
2
1
6
5
6
6
1
-1
1
1
0
9
19
-31
9
-8
-14
-25
-8
11
-17
6
11
7
14
23
7
1
6
21
1
-4
21
19
21
21
1
1
0
12
21
-31
12
-7
-9
-16
-7
52
-53
1
52
8
12
17
8
40
52
73
40
-14
-23
-34
-14
26
23
29
26
-2
-1
0
12
17
-23
12
1
5
7
1
52
-53
-2
52
-1
-3
-1
-34
-44
-63
-34
-21
-34
-53
-21
12
12
15
12
-2
-2
-2
-2
0
8
8
-8
8
8
9
17
8
12
-13
12
-10
-13
-23
-10
6
5
-7
6
-17
-28
-44
-17
-2
2
-2
-1
-1
-1
-1
0
7
7
-3
7
14
21
29
14
-37
40
-37
-14
-19
-31
-14
2
8
-9
-17
-25
-9
-2
-2
-2
-2
-2
0
-1
2
-1
6
11
19
6
-28
29
-1
-28
-3
-14
-17
-3
2
2
2
2
-3
-10
-13
-3
-1
-1
-2
-2
-1
-2
0
19
15
-17
19
-10
-21
-31
-10
-48
48
-48
15
21
32
15
-16
-25
-37
-16
12
17
1
-2
1
2
2
2
0
12
15
-21
12
-9
-14
-25
-9
-17
11
7
-17
9
15
26
9
6
12
29
6
9
26
35
9
9
9
9
9
3
1
3
3
0
14
15
-19
14
-7
-9
-14
-7
44
-48
3
44
7
11
17
7
40
52
73
40
21
44
61
21
12
14
15
12
1
1
0
12
14
-14
12
2
6
8
2
73
-71
73
-4
-2
-4
-4
-37
-48
-71
-37
26
48
65
26
6
6
7
6
-2
-1
0
7
8
-3
7
7
8
15
7
44
-44
-1
44
-10
-14
-23
-10
1
-11
1
15
35
48
15
-3
-2
-1
-3
0
7
8
-2
7
14
19
26
14
-11
14
-2
-11
-10
-16
-28
-10
3
6
12
3
8
17
23
8
-3
-1
-1
0
-1
1
-1
5
8
17
5
-19
23
-2
-19
-11
-14
-2
2
8
-1
-2
-2
-1
0
9
8
-5
9
-9
-19
-28
-9
-53
52
-2
-53
17
19
32
17
-11
-23
-31
-11
3
9
9
3
-2
-4
-2
-2
2
2
2
0
7
5
-8
7
-7
-10
-21
-7
-48
40
5
-48
11
15
23
11
11
19
29
11
2
7
1
1
2
1
2
0
9
8
-3
9
-5
-4
-9
-5
5
-10
5
5
3
11
14
3
23
32
48
23
-2
1
9
-2
2
3
5
2
1
-1
1
0
7
6
-2
7
3
8
9
3
44
-44
1
44
-5
-3
-5
-25
-31
-48
-25
-2
3
12
-2
2
-1
2
2
-2
0
2
1
5
2
7
11
17
7
40
-41
40
-11
-11
-19
-11
-3
-2
-11
-3
-2
6
12
-2
-1
2
-1
0
2
3
1
2
14
17
26
14
2
-4
2
-11
-14
-28
-11
3
7
14
3
1
7
11
1
-4
-1
0
-3
1
5
-3
3
5
14
3
-2
6
-2
-2
-3
-10
-16
-3
-1
1
3
5
8
3
-1
0
5
5
-3
5
-9
-16
-23
-9
-16
26
-8
-16
9
9
23
9
-5
-16
-17
-5
-2
-5
-3
-2
-3
-1
1
-1
1
1
0
3
-3
3
-5
-5
-14
-5
-34
35
-2
-34
7
11
19
7
14
17
26
14
-2
-9
-8
-2
1
-1
1
1
1
1
0
6
2
6
-2
-5
-2
-21
19
3
-21
3
9
12
3
6
11
14
6
-2
-11
-10
-2
2
1
3
2
-1
0
6
3
1
6
6
11
11
6
6
-9
6
6
-6
-1
-6
-6
-6
-9
-19
-6
-1
-7
-9
-1
2
-2
1
2
-2
-1
0
5
6
9
14
6
15
-21
5
15
-9
-8
-17
-9
-3
-4
-9
-3
-2
-6
-6
-2
-2
-2
-2
-2
0
5
2
1
5
8
14
19
8
-2
-1
5
-2
-14
-13
-25
-14
2
7
-2
-2
-2
-2
-2
1
-2
0
-5
2
-5
2
8
-1
1
-1
-2
-8
-14
-2
-1
-2
2
-1
0
-2
-3
5
-2
2
-8
-8
2
29
-17
-13
29
-2
11
-2
-6
-3
-2
-3
-2
-3
-3
1
-1
1
1
0
-5
3
1
-2
-7
1
7
2
-9
7
1
2
12
1
8
14
17
8
1
-1
1
-3
0
-2
-8
2
-2
-1
-4
-11
12
-2
-11
6
9
-2
-1
-2
-1
-1
3
3
2
3
0
-2
-3
3
-2
2
6
7
2
-7
3
3
-7
-4
-2
-4
5
-2
1
-2
-2
1
3
-2
3
-1
0
-4
-4
7
-4
5
6
-9
3
6
-2
-1
-6
-2
-5
-4
-6
-5
-2
-2
-2
-1
0
-2
-3
5
-2
2
3
9
2
-2
2
-2
-3
-5
-10
-3
-1
-2
2
-1
-1
-2
-3
-1
2
-1
1
2
1
1
1
0
-9
-5
6
-9
-6
-9
-2
-6
2
-2
-1
2
8
8
1
2
3
3
1
1
1
0
-4
2
5
-4
-11
-23
-28
-11
-1
7
3
-1
-2
8
-3
-5
8
1
1
5
1
-2
-2
-2
-2
0
-8
3
7
-8
-17
-25
-37
-17
1
-2
-2
1
-2
-16
-14
1
1
6
9
14
6
-2
-2
-2
-2
0
-5
8
14
-5
-19
-28
-41
-19
3
-5
-5
3
-2
-2
-2
-4
-10
-7
-4
1
6
3
1
2
7
12
2
-2
-2
-2
-2
0
-1
12
19
-1
-17
-25
-37
-17
2
-5
-5
2
-2
-2
-2
2
8
12
2
-1
7
2
-1
8
12
21
8
-1
-1
0
1
12
19
1
-13
-19
-31
-13
3
-2
-2
3
-2
-2
-2
7
9
-2
2
-2
5
7
12
5
-1
0
3
6
11
3
-6
-14
-23
-6
2
5
3
2
-1
-2
-1
-2
3
2
-2
-2
2
-2
-3
-3
-1
-3
-1
0
-2
-3
2
-2
6
-4
-8
6
1
5
3
1
-1
1
-1
-2
3
1
-2
-2
3
1
-2
-11
-19
-16
-11
1
-1
1
0
1
9
17
1
-7
-11
-21
-7
-3
6
1
-3
-2
2
-14
-16
2
-1
-1
-1
-6
-10
-10
-6
-2
-2
-2
-2
0
8
21
29
8
-8
-10
-23
-8
-2
-5
-7
-2
-2
-3
-2
-2
-7
-19
-17
-7
3
-2
1
3
1
2
3
1
-2
-2
-2
-2
0
15
23
32
15
-6
-10
-25
-6
-10
-11
1
9
17
1
-3
-1
1
6
9
15
6
-2
-2
-2
-2
0
17
14
19
17
-10
-13
-28
-10
-13
-13
3
3
5
3
12
32
40
12
1
1
9
19
29
9
0
7
-1
7
-7
-9
-21
-7
-1
-13
-13
-1
-2
11
8
-2
1
1
2
1
15
23
32
15
-1
0
1
-9
-10
1
-4
-7
-16
-4
-2
-6
-6
-2
-1
-2
-1
-2
-2
-5
-2
3
12
17
23
12
-2
-1
0
-6
-6
-3
-7
1
1
2
1
1
-2
-2
-4
-2
-2
-1
-2
-2
2
-2
1
2
-1
-1
0
5
5
6
5
-3
-4
-9
-3
-6
7
1
-6
-2
-9
-21
-21
-9
2
3
5
2
-9
-16
-21
-9
-2
-1
-2
-2
0
9
2
-3
9
-5
-5
-11
-5
-3
-4
-3
-2
-1
-2
3
11
-2
3
-5
-1
3
-8
-13
-21
-8
-1
-2
-2
-1
0
-4
-28
-41
-4
-3
-7
-13
-3
-2
-7
-10
-2
6
5
6
6
23
48
65
23
-9
-23
-21
-9
-4
-4
-6
-4
-1
-1
0
-19
-53
-71
-19
-6
-9
-14
-6
-2
-10
-13
-2
12
11
12
12
9
26
29
9
-7
-17
-16
-7
2
9
14
2
2
1
1
2
0
-16
-41
-53
-16
-2
-3
-8
-2
-3
-11
-13
-3
5
3
5
5
-17
-19
-28
-17
-2
-1
8
19
26
8
1
1
0
-6
-17
-25
-6
-2
-2
-6
-2
-5
-7
-9
-5
-1
-2
-1
-7
-11
-21
-7
1
5
2
1
9
19
26
9
-2
-1
0
-2
-7
-1
-3
-4
-1
3
2
-1
-4
-8
-1
-2
2
-2
5
7
11
5
-2
-1
0
-4
-21
-28
-4
6
7
9
6
-7
9
3
-7
-2
-1
-5
-6
-2
-5
5
7
6
5
-6
-14
-21
-6
-2
-2
-2
-2
0
-16
-41
-53
-16
7
8
12
7
-2
8
2
-2
-2
-2
15
32
44
15
1
-9
-8
1
-16
-25
-41
-16
-1
-2
-2
-1
0
-16
-44
-60
-16
7
7
11
7
6
-2
23
44
52
23
-16
-34
-37
-16
-23
-31
-48
-23
-2
-2
0
-1
-19
-28
-1
3
5
7
3
-2
-4
-2
3
2
2
3
-23
-25
-37
-23
-17
-31
-34
-17
-14
-17
-28
-14
3
1
1
3
0
7
8
6
7
5
7
9
5
-4
-2
-6
-4
1
1
-21
-31
-48
-21
-1
-5
-7
-1
-2
3
-2
3
1
2
3
0
5
14
14
5
5
6
8
5
-5
-3
-5
-1
-2
-2
-1
2
-2
-8
2
3
8
3
3
1
11
11
1
2
2
0
3
9
9
3
3
1
7
3
7
5
7
6
7
7
-2
5
1
-2
1
5
5
1
-2
-1
0
2
-11
-13
2
8
11
17
8
-5
5
3
-5
-1
2
5
12
2
5
1
7
7
6
7
-2
-3
-3
-2
0
8
1
2
8
8
12
19
8
-5
3
1
-5
12
26
32
12
5
2
5
-6
-11
-21
-6
-2
-2
0
21
26
29
21
11
17
23
11
-2
3
-2
-1
-2
-8
-5
-13
-8
-7
-11
-14
-25
-41
-14
-2
-2
0
17
32
40
17
11
17
23
11
-2
3
-2
-1
-2
-28
-37
-57
-28
-6
-9
-21
-28
-44
-21
5
1
2
5
0
6
26
29
6
7
12
17
7
-4
1
-2
-4
-2
-6
-14
2
1
-1
2
-11
-13
-21
-11
5
1
2
5
0
1
9
15
1
3
8
11
3
-8
-3
-8
9
9
12
9
6
1
-2
2
-2
2
2
0
-1
3
-1
-1
6
-1
-4
-4
5
3
9
5
-2
-2
-2
3
3
-1
-1
0
2
1
5
2
8
12
21
8
-6
3
5
-6
2
7
8
2
-2
2
-2
-2
11
12
19
11
-2
-2
0
2
11
19
2
12
17
26
12
-6
2
3
-6
1
6
2
1
3
-2
5
5
9
5
-2
-2
0
12
21
12
21
29
12
-7
3
2
-7
-1
-1
-1
-1
-14
-19
-31
-14
5
6
5
3
-2
-3
3
1
-1
1
0
-4
6
12
-4
11
19
26
11
-5
7
5
-5
-7
-16
-28
-7
5
7
1
5
-5
-14
-19
-5
3
1
3
0
-6
3
7
-6
9
17
23
9
-5
8
3
-5
1
1
8
7
9
8
2
-1
-8
-14
-21
-8
3
1
1
3
0
1
5
7
11
17
7
-9
6
2
-9
1
1
1
5
7
11
5
3
-4
-4
-8
-4
3
1
3
0
-2
1
9
-8
-1
-8
-4
-3
-1
-4
2
-2
-1
-2
1
1
0
2
6
1
1
9
1
-2
-1
5
-2
-1
-1
6
3
2
8
12
19
8
-2
-2
0
-4
2
6
-4
6
8
17
6
6
-2
-2
-3
-2
-6
-3
-2
7
7
17
7
1
-1
1
0
-4
1
-4
6
8
17
6
-3
1
5
-3
-2
-2
-4
-7
-14
-4
2
3
-1
2
8
7
15
8
2
2
0
-3
-3
-1
-3
3
3
12
3
-4
2
5
-4
-1
-1
3
-1
-1
3
2
5
1
2
6
3
8
6
2
2
0
-2
-2
-2
6
5
14
6
-3
5
6
-3
8
7
15
8
-2
1
1
2
2
0
-3
-3
2
-1
7
2
-4
6
6
-4
-2
-2
6
1
1
-1
1
2
2
0
-2
-1
-3
-9
-3
-2
3
6
-2
-2
-2
-4
-2
-4
-2
-4
-2
1
1
0
5
-2
-2
5
-2
-2
-2
-10
-13
26
-10
5
1
2
5
1
12
8
-19
12
-21
17
3
-21
0
-4
-14
-3
-4
-1
-2
-1
-21
-7
26
-21
-1
-6
5
-7
-6
1
2
21
-23
2
-6
-2
11
-6
0
6
14
6
3
1
5
3
-23
-3
29
-23
-19
-11
-19
1
1
1
1
-3
29
-28
-3
6
-19
11
6
0
5
9
5
5
3
1
5
3
-19
-8
23
-19
5
11
14
5
1
1
1
-2
26
-25
-2
9
-21
12
9
0
-8
-9
-8
-2
-3
-2
-2
-5
-4
8
-5
-1
6
-7
-1
6
-1
-3
-1
7
-5
5
-13
5
5
0
-2
3
-3
-2
-2
-2
-1
-2
1
-2
1
1
7
-8
7
1
-3
1
1
2
-2
2
3
-3
1
3
0
-2
3
-2
-2
-2
-1
-2
11
-2
-8
11
1
1
1
5
-4
1
5
2
5
2
5
-10
7
5
3
3
-5
3
0
-9
-21
-13
-9
-3
-2
-3
-23
-10
29
-23
-2
-1
5
11
3
5
1
1
1
1
7
17
-25
7
-16
1
11
-16
0
9
11
29
9
-2
1
-41
1
35
-41
-2
-1
-31
-17
-28
-31
-2
-2
-2
-2
-6
40
-34
-6
-3
-19
19
-3
0
29
32
32
29
11
7
11
11
-48
5
40
-48
-1
8
23
32
8
1
1
-10
48
-41
-10
7
-31
23
7
0
-25
-25
-44
-25
12
8
11
12
-34
-3
35
-34
-1
26
15
26
26
5
1
2
5
-5
35
-37
-5
-28
21
0
-7
-2
-10
-7
1
-2
1
-6
-5
14
-6
-1
-11
-34
-31
-11
-4
-2
5
6
-8
5
-4
-10
12
-4
0
8
9
9
8
-1
-2
-1
1
-5
2
1
6
-2
2
6
2
-3
1
2
5
-3
5
-3
1
6
-3
0
1
-3
1
-1
9
-1
-7
9
-2
2
-2
2
-2
2
2
2
-10
7
2
-4
6
-5
-4
0
-8
-14
1
-8
-2
-1
-2
-28
-6
35
-28
-1
-2
-1
-1
-17
-4
-17
-17
29
-31
-2
-19
21
-2
0
44
52
61
44
-2
-2
-2
-48
5
44
-48
-1
-10
9
11
-10
-5
-5
-7
-5
-13
52
-41
-13
5
-34
32
5
0
-31
-37
-71
-31
-2
-57
11
48
-57
1
1
52
52
73
52
-2
-3
-5
-2
-14
65
-53
-14
7
-37
35
7
0
-31
-28
-53
-31
2
1
2
-44
40
-44
-23
-63
-63
-23
3
1
3
-7
48
-41
-7
-4
-31
32
-4
0
26
40
44
26
-2
-14
-4
17
-14
-1
-1
-1
-25
-25
-1
1
-4
1
5
6
-13
5
-8
-9
17
-8
0
-2
-4
-2
1
-2
-3
6
-2
-2
-1
12
19
23
12
5
-3
2
5
3
-2
-1
3
-7
3
6
-7
0
-2
-8
-3
-2
7
-6
7
-1
-6
-2
-6
2
-2
1
2
3
-8
7
3
-3
8
-4
-3
0
12
11
23
12
-2
1
-2
-23
-7
32
-23
-2
-1
-14
2
-7
-14
-2
-2
-4
-2
-3
32
-28
-3
6
-31
23
6
0
-2
-1
-11
-2
-2
-2
-44
3
40
-44
-1
29
40
52
29
-7
-7
-11
-7
-13
52
-37
-13
5
-41
32
5
0
-48
-48
-83
-48
-5
-3
-2
-5
-48
6
40
-48
1
1
-8
-41
-37
-8
-5
-5
-9
-5
-14
58
-44
-14
-37
35
0
35
58
58
35
-4
-3
-2
-4
-37
-2
35
-37
-17
-63
-63
-17
1
-2
-2
1
-8
44
-41
-8
-13
-17
32
-13
0
6
15
29
6
-14
-2
17
-14
-1
-1
40
40
48
40
5
-2
2
5
1
11
-13
1
-16
14
-16
0
-13
-23
-21
-13
2
-5
-3
7
-5
-1
-2
-1
-1
-14
8
2
-14
7
-2
3
7
6
-5
-9
6
2
-9
0
3
3
6
3
1
1
1
1
5
-3
5
-1
-5
2
-2
-5
1
-2
1
1
-2
-2
1
-2
1
8
-6
1
0
5
1
5
5
1
-5
-7
12
-5
-1
-2
-2
-1
2
12
11
2
-2
-2
-3
-2
8
-7
8
2
-21
17
2
0
-19
-17
-31
-19
-2
-2
-11
-6
15
-11
-1
-2
-2
-1
1
-6
1
-10
-11
-14
-10
5
9
-13
5
-1
-23
23
-1
0
9
19
11
9
-2
1
-2
-13
-3
19
-13
-1
-2
-1
-1
-17
-48
-48
-17
-9
-11
-14
-9
3
14
-16
3
-10
-14
26
-10
0
17
26
40
17
-2
-2
-9
-8
17
-9
-1
-2
-2
-1
32
23
32
32
-2
-6
-7
-2
6
11
-16
6
-23
3
19
-23
0
-16
-28
-17
-16
2
-2
6
-2
-2
-2
-2
17
21
5
-3
5
8
-7
8
-16
14
5
-16
0
6
-5
-3
6
1
1
2
1
1
-2
1
1
-2
-2
-2
-2
-21
-5
-14
-21
7
-1
5
7
3
-7
3
3
-4
9
-6
-4
0
2
3
3
2
1
7
-7
7
2
6
2
2
-2
3
-11
9
3
5
5
-11
5
0
-3
2
-2
-3
-1
-1
-1
-4
5
-1
-1
1
1
1
3
1
-4
3
6
-16
11
6
0
7
-3
-2
-1
-2
-2
-4
6
-2
-2
-1
-17
-11
-4
-6
-8
-4
1
3
-3
1
1
-13
14
1
0
2
7
6
2
-3
-1
-3
-4
-2
8
-4
-1
-1
-1
-1
14
2
6
14
-5
-9
-10
-5
7
-6
-8
-5
12
-8
0
-6
-9
-2
-6
-2
-1
-2
-4
-5
9
-4
-1
-1
-1
-1
5
11
14
5
1
-3
-2
1
1
8
-9
1
-13
6
7
-13
0
3
-5
-2
3
-2
-1
-2
-2
1
-2
-2
-2
-2
-2
-16
-2
-6
-16
3
-2
3
-2
7
-3
-2
0
5
1
-1
5
2
-1
-1
-1
-2
5
-1
-2
2
-3
1
2
7
3
-9
7
0
-3
2
-1
-3
1
3
2
-5
3
1
-2
1
-2
-2
-2
-2
5
11
1
-11
11
0
-3
7
-2
-3
-1
-1
5
-3
5
1
1
1
3
-7
1
3
5
2
2
-3
2
2
6
-6
1
6
0
-3
-4
-3
-1
-1
2
-2
2
7
-6
2
7
-1
2
-1
-2
2
2
-3
1
2
0
-2
-2
-2
-2
-1
-1
-2
-1
-1
1
-1
-2
1
-2
0
6
-1
9
6
-2
-2
-1
2
-1
-1
-6
5
-2
-6
2
3
2
2
2
-5
-3
9
-2
-3
0
2
-3
2
-1
-1
5
-3
-2
8
1
-2
-2
-2
-2
3
-2
5
5
-9
5
0
-1
1
-4
-1
1
1
2
-4
1
-2
2
-2
-1
1
-1
-2
1
-2
8
2
-11
8
0
-3
6
-3
6
1
-7
6
1
2
-4
1
2
-1
1
2
-1
-2
-4
6
-2
11
3
-13
11
0
7
9
-4
1
-4
1
-3
-6
1
-2
-2
-2
-2
-2
1
-2
5
-2
1
5
29
-37
11
29
2
15
7
2
0
6
3
6
-3
1
1
-3
3
8
7
3
-4
-2
-1
-4
-11
-11
-11
-11
-2
-3
-6
-2
32
-44
11
32
-8
-4
-16
-8
0
-5
-23
-25
-5
-3
-3
7
17
21
7
-2
2
-2
-21
-19
-21
-21
-4
-3
-8
-4
32
-41
11
32
-19
-23
-34
-19
0
-6
-17
-17
-6
-2
2
-2
8
15
23
8
2
3
7
2
-19
-17
-21
-19
-7
-4
-9
-7
29
-41
8
29
-6
-13
-14
-6
0
9
9
9
9
-3
-1
-3
-1
-3
-1
1
5
-9
-10
-10
-9
5
1
2
5
21
-31
7
21
9
8
12
9
0
-4
-4
-2
1
-2
-5
-14
-13
-5
-2
-1
1
-2
3
1
3
17
-23
8
17
2
2
5
2
0
-2
2
1
-2
-2
1
-2
3
-3
-4
3
-2
-2
-2
2
3
1
1
5
1
6
-13
7
6
3
-2
3
3
0
5
14
19
5
-3
-1
-3
-5
-14
-23
-5
-2
-1
1
-2
14
12
19
14
-2
-6
-7
-2
21
-28
7
21
-5
-11
-5
0
5
-1
5
-2
1
1
-2
-4
-3
-8
-4
-2
-2
-2
26
35
48
26
-10
-8
-16
-10
29
-34
9
29
-19
-23
-37
-19
0
-13
-34
-44
-13
-5
-5
5
17
23
5
2
1
5
2
40
52
73
40
-9
-4
-16
-9
32
-41
8
32
-14
-23
-28
-14
0
-2
-7
-11
-2
-3
2
-3
8
23
32
8
8
7
9
8
35
48
65
35
-17
-11
-21
-17
29
-34
8
29
15
12
23
15
0
14
23
23
14
-4
1
-4
1
7
3
3
6
3
14
23
32
14
-4
-7
-10
-4
19
-23
6
19
19
21
32
19
0
-7
1
-7
-3
1
-3
-4
-16
-13
-4
-2
1
-2
7
8
2
-2
-2
2
11
-16
5
11
3
5
9
3
0
-2
1
-2
-2
1
-2
-2
-11
-13
-2
-2
-2
-2
2
2
1
3
2
-5
5
3
5
3
0
8
21
26
8
-2
-2
-7
-21
-34
-7
-2
1
-2
-14
-23
-28
-14
-9
-13
-16
-9
11
-16
3
11
-14
-14
-31
-14
0
2
-11
-13
2
-2
1
-2
-8
-10
-19
-8
-2
-1
-2
-31
-44
-57
-31
-13
-11
-19
-13
17
-23
6
17
-19
-23
-34
-19
0
-19
-44
-57
-19
-7
-7
-4
-7
7
21
26
7
-2
-2
-2
-41
-60
-71
-41
-13
-9
-21
-13
21
-28
8
21
9
8
19
9
0
7
2
7
-4
-7
-2
-4
14
35
48
14
2
-25
-44
-53
-25
-13
-8
-21
-13
17
-23
7
17
35
40
65
35
0
12
26
29
12
-3
-3
-3
8
15
23
8
-1
-1
1
-1
-5
-14
-17
-5
-7
-11
-16
-7
9
-14
5
9
14
15
29
14
0
-6
5
5
-6
-4
-2
-4
-2
-9
-6
-2
-2
-2
-2
1
-1
1
-3
-9
-10
-3
7
-9
2
7
-6
-6
-7
-6
0
-1
-1
-4
-4
-1
-9
-11
-1
-1
-1
-1
2
1
1
2
-1
-2
-2
3
-3
-3
-5
-3
0
12
21
26
12
-1
-2
-1
-1
-9
-25
-41
-9
-2
-1
1
-2
7
7
3
7
-7
-13
-13
-7
-8
9
-1
-8
-14
-14
-25
-14
0
-2
-19
-25
-2
-2
-5
-3
-2
-11
-19
-31
-11
-2
-2
-2
19
21
17
19
-9
-7
-16
-9
-8
8
1
-8
3
0
-17
-41
-57
-17
8
-4
8
6
17
19
6
-3
-2
-1
-3
21
21
17
21
-10
-6
-19
-10
-10
7
2
-10
32
35
58
32
0
9
12
12
9
32
14
23
32
15
35
48
15
-2
-2
-2
6
1
-3
6
-11
-8
-19
-11
-10
7
1
-10
32
29
52
32
0
2
21
26
2
9
-1
3
9
6
15
26
6
-2
-1
-2
-7
-16
-23
-7
-4
-8
-11
-4
-8
7
2
-8
-5
-10
-8
-5
0
-3
7
8
-3
-2
-4
-2
-2
-6
-1
-2
1
-2
-6
-13
-19
-6
-3
-7
-8
-3
-5
7
-5
-13
-17
-25
-13
0
-2
-4
-2
-2
-2
-8
-9
-2
-1
-2
-4
-7
-10
-4
2
-1
2
-4
6
1
-4
-4
-5
-11
-4
0
11
12
19
11
1
-6
-21
-31
-6
-1
-1
1
-1
8
8
3
1
3
-13
19
-5
-13
-2
-2
-2
-2
0
-3
-23
-28
-3
-2
-3
-14
-23
-34
-14
-2
-2
-2
-4
5
9
-4
3
3
3
-19
23
-8
-19
14
15
29
14
0
-14
-34
-44
-14
12
-1
1
12
-2
5
1
-2
-2
-1
1
-2
2
14
23
2
-1
-2
-8
-1
-23
26
-7
-23
23
23
40
23
0
11
21
21
11
32
12
19
32
14
32
40
14
-1
1
-1
9
23
32
9
-5
-7
-9
-5
-21
26
-4
-21
-8
0
-2
15
17
-2
11
-2
11
3
14
21
3
-2
1
-2
14
23
29
14
3
-1
3
-16
15
-3
-16
-14
-23
-28
-14
0
-5
3
2
-5
-2
-2
5
-2
1
-2
11
17
19
11
2
-2
2
-7
9
-5
-7
-10
-11
-21
-10
0
-3
-5
-2
-3
-1
-1
-1
-2
-5
-1
1
5
6
7
5
3
1
5
3
2
-1
-2
2
3
-1
0
6
7
9
6
-2
1
-2
1
-11
-17
1
-2
-1
-2
-2
-3
-2
1
-2
2
1
-21
29
-9
-21
3
1
3
3
0
-4
-17
-21
-4
2
-1
-14
-21
-34
-14
-2
-2
-2
-4
-5
-9
-4
2
2
-25
40
-10
-25
11
8
17
11
0
-6
-17
-21
-6
-2
-4
-7
-2
-8
-5
-14
-8
-2
-1
1
-2
-10
-13
-19
-10
2
-2
-2
2
-28
40
-10
-28
5
3
5
0
6
19
21
6
1
-4
-6
1
3
19
19
3
-1
1
-1
-14
-16
-19
-14
-2
-6
-5
-2
-28
40
-11
-28
-9
-19
-23
-9
0
-2
12
11
-2
-3
-5
1
9
11
1
-2
-1
-2
-13
-13
-14
-13
7
-2
1
7
-19
26
-8
-19
-9
-11
-19
-9
0
-4
-2
-4
-1
-1
-1
-1
-1
-2
-1
-2
-8
-5
-7
-8
-4
-1
-10
17
-6
-10
-3
1
-5
-3
0
1
-2
-1
1
-2
-2
-2
-6
-2
-2
-2
-2
2
3
-2
6
3
0
2
3
2
-4
3
-1
-4
12
1
5
12
-2
-1
-2
-3
5
-19
29
-9
-19
3
3
3
0
-3
-13
-11
-3
-5
3
-2
-5
-4
-11
-16
-4
-2
-1
-2
2
3
2
2
2
5
2
-17
32
-10
-17
6
5
8
6
0
-1
-6
-5
-1
-6
1
-3
-6
-6
-6
-11
-6
1
7
2
7
7
-1
-2
-2
-1
-21
32
-11
-21
-2
-4
-5
-2
0
2
12
14
2
-3
2
-2
-3
-1
8
8
-1
-1
-1
-1
7
3
7
7
-2
-2
-19
32
-10
-19
-4
-9
-14
-4
0
-1
8
7
-1
-2
2
-2
-2
3
7
8
3
-2
-2
-2
3
1
3
3
5
6
5
-13
21
-7
-13
-1
3
-1
0
-2
-2
-3
1
-1
-3
1
-2
-2
-1
-2
1
1
3
1
-2
-2
-2
-10
14
-4
-10
-2
5
2
-2
0
3
-1
3
3
-3
1
-1
-3
2
5
1
2
-2
-2
-1
-2
-2
-2
1
-2
-1
2
-1
-2
2
-1
-2
-2
6
5
-2
0
-2
-3
-2
-2
3
5
3
-2
-1
-2
-2
-4
-4
1
-4
5
-13
5
-4
-3
-11
-4
3
5
3
1
2
1
0
1
9
14
19
9
-5
1
-4
-5
8
6
15
8
2
-2
5
2
-6
-10
-21
-6
1
2
-4
-7
-10
-4
0
5
8
7
5
2
9
17
2
-10
2
-7
-10
14
7
19
14
-7
3
-7
-10
-17
-31
-10
-2
2
-2
-7
-2
-6
-7
0
3
2
-7
-2
5
-7
-11
5
-5
-11
11
7
19
11
-8
8
-8
-8
-14
-28
-8
-1
3
-1
11
21
26
11
0
-3
-2
-2
-3
-4
-7
-3
-4
-3
-2
-3
11
6
17
11
-6
8
1
-6
-7
-11
-23
-7
1
5
1
1
-3
-2
-2
-3
0
-2
-1
-1
-2
-3
-1
-2
-2
2
1
6
2
-2
5
1
-2
-6
-9
-17
-6
1
3
1
-3
-5
-8
-3
0
-2
-1
-1
-2
-1
-2
-1
1
-3
1
1
-3
-1
-3
1
-3
-5
-9
-3
-2
7
1
-2
1
2
1
0
-1
-8
-17
-23
-8
-6
1
-4
-6
11
11
21
11
8
-5
7
8
1
-2
6
-2
5
6
6
8
12
6
0
3
3
3
3
-1
-10
-16
-1
-9
6
-5
-9
15
15
26
15
1
3
7
1
-6
-9
-11
-6
-4
-2
-10
-19
-28
-10
0
12
14
14
12
21
19
23
21
-13
7
-6
-13
19
15
26
19
-9
7
-9
-13
-19
-25
-13
-5
-7
-8
-5
-4
-3
-3
-4
0
8
8
8
8
21
32
44
21
-11
9
-3
-11
11
9
19
11
-7
11
-7
-14
-21
-31
-14
-5
-6
-10
-5
21
32
44
21
0
-1
2
8
19
2
-3
3
-2
-3
1
1
6
1
-4
7
-2
-4
-13
-19
-28
-13
-7
-9
-11
-7
-14
-21
-23
-14
0
2
2
-2
-2
3
-2
-1
1
2
-1
-7
-5
-8
-7
-1
-2
-7
-14
-19
-7
-3
-6
-8
-3
2
-3
-5
2
0
1
1
3
1
7
3
2
-3
2
2
-7
-4
-7
1
-3
-2
1
-3
-9
-11
-3
3
2
3
3
2
0
1
-2
-2
1
-7
-9
5
-4
-9
9
9
19
9
3
11
15
23
11
6
-3
5
6
14
19
21
14
0
-2
-2
-21
-34
-53
-21
-13
7
-7
-13
12
11
21
12
-8
6
-8
21
29
40
21
3
-5
3
-28
-44
-60
-28
0
3
3
3
-28
-48
-71
-28
-14
9
-6
-14
9
3
9
9
-13
9
-3
-13
29
40
58
29
-1
-8
-6
-1
6
12
15
6
0
2
2
3
-3
-14
3
-14
9
-4
-14
-6
-9
-10
-6
-8
9
-4
-8
26
40
58
26
-2
-8
-10
-2
29
44
65
29
0
-2
-3
12
19
23
12
-6
-2
-6
-11
-13
-19
-11
-3
-5
-3
15
26
35
15
-6
-13
-14
-6
-28
-37
-48
-28
0
2
2
1
9
14
1
-1
1
5
-1
-11
-10
-21
-11
5
-3
-2
5
9
15
23
9
-2
-8
-8
-2
9
8
3
9
0
1
-1
-1
1
-2
3
-2
2
-3
2
2
-5
-1
-8
-5
7
-5
7
7
8
12
7
5
5
3
5
1
1
0
1
-3
-2
1
9
19
26
9
-10
6
-4
-10
-1
3
7
-1
-8
6
-2
-8
7
8
12
7
5
-5
3
5
15
19
19
15
0
1
-3
-3
1
17
21
23
17
-17
8
-8
-17
-6
-4
-6
-6
-11
11
-2
-11
7
9
21
7
7
-4
3
7
-37
-53
-71
-37
0
-2
-4
-9
-21
-41
-9
-19
9
-7
-19
-16
-17
-28
-16
-10
12
-3
-10
12
19
32
12
9
-3
2
9
21
29
40
21
0
-3
-4
-31
-53
-83
-31
-16
7
-3
-16
-25
-25
-44
-25
-4
6
-3
-4
21
29
48
21
5
-6
-3
5
21
35
52
21
0
-2
-3
-9
-23
-37
-9
-2
3
5
-2
-19
-16
-37
-19
3
-2
-1
3
17
26
44
17
-10
-8
-34
-41
-57
-34
0
2
-1
-1
2
5
-5
5
6
-14
-11
-28
-14
9
-5
1
9
8
14
23
8
3
-8
-4
3
15
15
11
15
0
-2
-2
1
1
-6
1
-2
-6
-2
8
-7
1
8
6
8
14
6
6
2
5
6
-4
-4
-3
-4
0
2
-1
2
-3
9
-3
-10
7
-10
-4
2
1
-4
-8
8
-8
-5
-7
-11
-5
1
-3
3
1
11
11
14
11
0
2
-1
-1
2
7
19
35
7
-16
9
-4
-16
-13
-9
-16
-13
-7
12
1
-7
-9
-14
-19
-9
1
-5
1
-28
-37
-53
-28
0
2
-1
-2
2
26
40
52
26
-17
8
-4
-17
-21
-21
-34
-21
-4
7
-1
-4
-14
-21
-28
-14
6
-3
2
6
23
32
40
23
0
3
-1
-1
3
11
14
12
11
-13
8
2
-13
-17
-16
-34
-17
3
-2
-1
3
-11
-17
-23
-11
9
-1
5
9
5
15
26
5
0
2
-1
-1
2
-7
-13
-21
-7
2
3
9
2
-7
-4
-19
-7
11
-6
2
11
-7
-11
-13
-7
6
-4
6
-19
-25
-34
-19
0
2
2
-5
-13
-19
-5
-2
7
-1
-2
-7
-1
9
-11
9
-2
-5
-5
-2
2
-8
-4
2
11
9
8
11
0
1
1
1
-3
-6
1
2
-6
2
2
6
6
8
6
6
-10
6
-2
-2
-2
-2
2
2
2
-3
-2
-2
-3
0
-2
-1
1
-5
1
-14
7
-14
-7
-5
-7
-6
8
-6
-1
-2
-6
-1
-3
3
5
3
5
5
0
-2
-1
-7
-6
-7
-17
8
-17
-11
-8
-16
-11
-5
6
-5
-2
-5
-11
-2
-1
-5
-1
-14
-23
-25
-14
0
1
-1
-1
1
-2
6
15
-2
-17
7
-2
-17
-7
-8
-17
-7
-1
-2
-2
-1
-8
-13
-23
-8
1
-5
1
15
23
29
15
0
1
-2
-2
1
9
19
26
9
-13
8
2
-13
1
-7
8
-7
8
-9
-11
-25
-9
6
-3
3
6
-3
1
7
-3
0
-2
-2
11
12
19
11
-2
5
-2
8
7
7
8
9
-9
9
-4
-8
-16
-4
8
-3
3
8
-2
-5
-10
-2
0
1
-1
1
-3
-2
2
-3
7
6
8
7
7
-10
-1
7
-2
-3
-8
-2
2
-8
-2
2
1
-1
1
0
-5
-4
-3
2
8
7
14
8
5
-7
5
1
-1
-2
-2
-2
-2
3
2
0
-1
-1
-1
-3
1
1
7
1
-3
-1
-2
-3
-3
2
-1
-3
3
3
5
-3
-1
0
-1
-1
-2
-2
-3
-2
-2
3
-2
-3
-3
-4
-3
-1
-1
1
3
1
1
-1
1
3
-1
-4
-6
-6
-4
0
-1
-5
-4
-2
-5
-2
-1
3
-2
2
1
1
2
5
-5
5
1
-3
2
3
5
11
12
5
0
-1
-7
-3
-3
-7
-2
-2
2
-2
9
8
11
9
11
-10
11
3
2
-2
3
1
-2
3
-2
0
-2
2
3
-2
7
-6
3
7
11
7
15
11
9
-10
1
9
1
1
-2
1
2
2
2
1
1
-2
1
0
5
6
6
5
8
-6
5
8
6
1
11
6
7
-8
7
-1
-4
2
-1
1
2
-3
-4
-4
-3
0
1
1
9
-6
3
9
1
1
9
1
5
-4
2
5
1
-2
1
3
3
0
-2
-5
-1
8
9
19
8
3
6
8
3
-1
6
3
-1
-2
-2
1
-2
7
-8
7
2
-2
2
0
-1
-5
-5
-3
-5
8
11
23
8
-1
-3
-1
2
6
8
2
-1
-1
2
-1
9
-11
-3
9
6
-4
6
0
11
17
26
11
8
11
21
8
-14
-14
-25
-14
-11
-13
-16
-11
-1
2
-1
12
-11
-2
12
-2
-10
-19
-2
0
-1
-10
-6
-4
-10
9
12
23
9
14
19
21
14
-1
-6
-10
-1
-1
-1
2
-1
11
-10
-2
11
-11
-17
-28
-11
0
-1
-4
-10
-14
-4
8
9
19
8
-6
-3
-1
-6
12
11
14
12
-1
-2
2
-1
8
-2
1
8
-5
-10
-11
-5
0
-2
7
2
3
7
3
5
12
3
3
-2
-2
3
-3
-2
-2
-3
-1
-2
2
-1
3
-1
3
-2
-2
-2
-2
0
-1
-1
-3
-6
5
-3
-1
-1
-1
1
-7
9
-7
-1
5
-1
0
-1
6
2
1
6
7
12
21
7
-2
-2
5
-2
-3
-3
-2
-3
-2
-2
1
-2
8
-10
8
-4
-11
-11
-4
0
-1
-1
-19
-25
-34
-19
7
14
23
7
17
23
23
17
12
17
29
12
-2
-2
1
-2
12
-13
-2
12
-16
-19
-21
-16
0
21
26
35
21
12
19
26
12
-34
-41
-60
-34
7
14
21
7
-2
-2
1
-2
15
-13
15
-16
-11
-8
-16
0
7
23
35
7
11
17
26
11
26
32
35
26
-34
-44
-63
-34
-1
-2
1
-1
11
-14
-3
11
6
19
29
6
0
-1
-1
-17
-21
-25
-17
7
14
23
7
-6
-2
6
-6
9
-8
9
-2
-2
1
-2
8
-7
8
12
26
35
12
0
-1
-1
2
-4
-8
2
3
9
17
3
-1
-9
-9
-1
12
14
14
12
-2
-2
1
-2
5
-4
5
6
12
19
6
0
-1
3
2
1
3
1
9
1
1
1
-3
-2
-3
-1
-1
1
-1
-6
6
-6
6
7
9
6
0
1
-1
1
14
14
15
14
9
14
19
9
-10
-13
-4
-10
-11
-11
-19
-11
-2
-2
1
-2
12
-10
1
12
8
17
23
8
0
-28
-41
-60
-28
9
15
21
9
35
48
52
35
-11
-11
-8
-11
-2
-2
1
-2
15
-14
-1
15
17
35
52
17
0
2
3
2
2
-6
-14
-19
-6
12
19
26
12
-48
-57
-83
-48
44
65
87
44
-1
-2
1
-1
19
-16
19
40
61
87
40
0
3
5
3
3
35
52
73
35
12
19
26
12
19
21
21
19
-2
9
15
-2
2
1
5
2
15
-19
-1
15
32
44
61
32
0
2
2
1
2
-9
-1
7
-9
9
15
23
9
11
19
35
11
-34
-44
-60
-34
3
12
-11
2
12
6
6
11
6
0
-10
-17
-21
-10
7
11
17
7
-11
-19
-21
-11
7
2
-7
7
-2
-2
1
-2
7
-8
1
7
-5
-6
0
-1
5
-1
5
3
7
12
3
5
6
3
5
-1
-1
-1
-1
-2
-1
1
-2
-2
3
-2
-4
-7
0
2
2
17
21
29
17
1
-14
-21
-13
-14
7
6
-1
7
-1
2
14
-11
2
14
1
6
9
1
0
1
1
1
2
-10
-21
2
-1
1
1
-1
35
48
58
35
-25
-34
-53
-25
-2
-2
1
-2
17
-17
17
-2
0
3
5
3
3
-34
-60
-83
-34
2
5
3
2
-25
-31
-53
-25
-9
-3
-9
-2
2
21
-19
1
21
-17
-31
-44
-17
0
6
7
5
6
17
26
35
17
7
8
9
7
-11
-13
-25
-11
40
65
87
40
7
3
8
7
21
-17
3
21
-37
-60
-83
-37
0
3
5
3
3
14
29
44
14
3
5
6
3
23
35
48
23
-2
5
11
-2
6
3
8
6
12
-16
1
12
-23
-37
-57
-23
0
2
2
-6
-6
-5
-6
1
2
3
1
-13
-19
-19
-13
-7
-14
-19
-7
-1
-1
2
-1
8
-10
2
8
-6
-13
-21
-6
0
1
1
-2
-4
2
2
3
2
3
2
3
3
2
-1
-1
2
-2
-2
1
-2
-2
-2
-4
-8
0
1
-1
-1
1
6
14
-8
-9
-16
-8
-4
-13
-6
-4
9
8
9
9
-1
-2
2
-1
3
-3
3
-2
-8
-10
-2
0
-2
21
21
26
21
-10
-10
-19
-10
11
19
26
11
-6
-14
-1
2
8
-7
8
-13
-23
-34
-13
0
1
1
1
-16
-34
-48
-16
-9
-11
-21
-9
3
6
-4
3
-25
-31
-48
-25
-1
2
11
-10
11
-14
-25
-44
-14
0
2
2
2
-10
-16
-23
-10
-6
-10
-17
-6
-19
-25
-37
-19
-8
-2
1
-8
6
2
7
6
12
-9
3
12
7
1
-8
7
0
1
1
9
19
23
9
-6
-8
-14
-6
17
23
29
17
11
19
29
11
5
2
7
5
5
-6
2
5
14
19
19
14
0
1
-1
1
6
9
-6
-6
-13
-6
-7
-9
-6
-7
1
3
3
2
-2
3
2
5
8
11
5
0
1
-1
-1
1
-2
-1
-2
-1
-3
2
1
2
2
2
2
-2
-1
1
-2
-6
5
1
-6
-2
-2
-2
-2
0
-2
-2
-4
-4
-4
-10
-16
-25
-10
3
-4
3
1
3
1
-2
-2
1
-2
3
-2
2
3
-2
-3
-5
-2
0
1
-1
-2
1
9
14
21
9
-13
-17
-31
-13
-2
1
2
-2
6
7
6
6
-1
-1
1
-1
7
-4
3
7
3
2
1
3
0
-2
7
-3
-4
7
-11
-19
-34
-11
6
11
8
6
3
-7
3
-1
-2
1
-1
9
-6
5
9
11
19
23
11
0
1
-2
1
-9
-17
-25
-9
-13
-21
-34
-13
-10
-14
-23
-10
-8
-7
-13
-8
1
3
1
8
-8
3
8
8
19
29
8
0
1
-1
-2
1
-2
-13
-19
-31
-13
8
9
11
8
-1
2
2
2
-6
2
2
-2
1
11
-2
0
1
-1
-2
1
5
8
9
5
-9
-11
-21
-9
-2
-3
-2
-2
-2
-2
-2
-1
2
-2
3
-3
3
3
-3
1
-3
0
-2
-2
-2
-2
-2
-3
-9
-2
-2
1
1
-2
1
-2
-5
3
2
-5
-1
1
3
-1
0
-1
-2
-1
-2
-2
-3
-13
-17
-3
3
-1
3
3
-2
2
-2
-2
-1
-2
-1
2
1
-1
-2
1
-2
0
1
-1
1
3
7
-6
-16
-23
-6
-3
-2
-3
-2
-2
-2
-2
-1
1
-1
-1
-2
-1
-1
2
5
7
2
0
1
-1
1
5
5
5
-6
-17
-28
-6
9
3
-2
1
-2
-2
3
5
-2
0
1
-2
1
-5
-4
-6
-16
-25
-6
-4
-4
-11
-4
-2
-1
-2
1
1
-4
1
1
-5
-6
-3
-5
0
1
-2
1
-2
-8
-6
-2
-6
-16
-23
-6
1
3
1
5
1
2
-4
-2
0
1
-1
-2
1
3
3
3
-4
-13
-17
-4
2
1
1
2
2
-1
1
-1
-1
-2
1
-1
1
-1
-2
1
0
3
-2
2
3
5
-2
-2
5
-2
-1
-1
1
-1
-2
1
-2
-7
5
1
-7
2
0
